10 50
*dt_0 -1.196919 0.577784 2.132354 1.145253 0.181497 -1.538768 -0.366065 0.227006 0.256901 -0.478578 -0.452991 -0.717826 -0.165084 -0.643831 0.426817 0.483878 0.358356 0.713952 -0.694651 1.642906 -0.546485 -0.245739 1.799524 -0.343067 -1.227847 0.093625 0.352837 -0.116185 -0.349455 -0.872443 0.136480 -0.932792 -0.774494 0.133227 0.510365 -0.200206 -0.733943 -0.090332 0.706935 -0.526981 0.279368 -0.212237 1.810873 0.336678 -0.374353 0.378071 -1.180593 -1.514474 0.015719 0.473454
*dt_1 -1.396762 0.697709 2.327760 1.331848 0.500138 -1.144405 -0.403959 -0.202532 0.223757 -0.460053 -0.794518 -0.371737 -0.070399 -0.370463 0.561290 0.606386 0.156179 1.039963 -0.943067 1.541666 -0.434034 -0.694912 1.795562 0.100234 -1.587491 -0.004031 0.644898 -0.075814 0.183051 -1.187604 0.467004 -1.322762 -0.534416 0.015803 0.498025 -0.043023 -0.517470 0.345064 0.490921 -0.424636 0.350082 0.004177 2.195001 0.732819 -0.445227 0.885192 -1.795807 -1.752213 -0.190129 -0.028475
*dt_2 -1.108454 0.510756 1.922853 0.960053 0.130848 -1.469201 -0.410677 0.034497 0.234283 -0.439905 -0.471581 -0.736023 -0.127494 -0.494357 0.471297 0.456769 0.396217 0.809882 -0.688753 1.520373 -0.428026 -0.191094 1.579619 -0.393666 -1.163615 0.037181 0.458579 -0.054319 -0.262656 -0.753862 0.212497 -0.752080 -0.711649 0.252963 0.486203 -0.166455 -0.652216 -0.007255 0.636169 -0.441754 0.238520 -0.195082 1.673183 0.324285 -0.398979 0.467132 -1.058202 -1.347986 0.029827 0.392778
*dt_3 -1.057514 0.506639 1.935505 1.039517 0.174862 -1.440281 -0.372942 0.095486 0.192767 -0.469145 -0.488043 -0.698382 -0.151887 -0.588409 0.344002 0.350328 0.383470 0.689937 -0.691236 1.458556 -0.515232 -0.231268 1.552669 -0.365240 -1.111458 0.009772 0.440070 -0.161972 -0.280981 -0.753983 0.092059 -0.878107 -0.563042 0.159429 0.512483 -0.148967 -0.654139 -0.039149 0.685454 -0.395972 0.149013 -0.092195 1.698686 0.413784 -0.324612 0.403098 -1.101012 -1.370242 0.084942 0.403875
*dt_4 -1.365172 0.837077 2.394748 0.884441 0.264434 -1.517698 -0.496510 0.254512 0.019907 -0.604394 -0.705631 -0.839010 -0.256844 -0.722846 0.410108 0.152708 0.321577 0.957211 -0.604802 1.949422 -0.718728 -0.084995 1.839494 -0.920642 -1.810503 0.208369 0.715768 -0.232642 -0.394688 -1.096822 -0.195673 -1.090793 -0.735700 0.343005 0.333406 -0.126470 -0.442291 -0.289988 1.163691 -0.473627 0.261112 0.278433 2.168248 0.520405 -0.086498 0.223866 -1.243502 -1.504961 -0.035579 0.492822
*dt_5 -1.284359 -0.292737 2.153671 2.486808 0.921726 -0.535284 -0.466688 1.310625 -0.123808 -0.661646 -2.145717 -1.602197 1.025379 -1.834207 0.784529 0.438178 1.489416 0.796154 -1.626480 1.483626 0.218160 -0.670564 2.243419 0.546246 0.046910 -0.952872 -0.523922 1.023488 -0.879954 -0.923990 0.620526 -1.292059 -0.531067 -0.566411 1.232456 -1.588602 -0.593278 1.155565 -0.273162 -1.466579 0.008334 -1.212362 2.690172 0.298709 -0.956251 -0.268505 -1.583975 -2.565009 1.060473 1.075499
*dt_6 -1.142212 0.566043 2.339314 1.309524 0.436030 -1.930924 -0.455026 0.290080 0.289733 -0.487459 -0.547109 -0.699533 0.076882 -0.959518 0.422432 0.531601 0.313973 0.898774 -0.757039 1.775229 -0.517343 -0.356115 2.102166 -0.356005 -1.188734 -0.254726 0.256372 -0.305348 -0.452899 -1.143609 0.411848 -1.294932 -1.076139 0.261170 0.528092 -0.420546 -0.839677 0.013373 1.009911 -0.523845 0.305986 -0.277793 2.210494 0.505885 -0.714211 0.694751 -1.047150 -1.865570 0.277566 0.822151
*dt_7 -1.549436 0.466108 2.383420 1.114649 0.219669 -1.899280 -0.359741 0.102089 0.376099 -0.671711 -0.826553 -1.006110 -0.288354 -0.613783 0.530356 0.451713 0.342071 0.836681 -0.814177 1.867414 -0.466856 -0.192712 2.073742 -0.482933 -1.475785 0.166793 0.566691 -0.076385 -0.271273 -0.990190 0.167671 -1.153003 -1.012106 0.240016 0.542686 -0.213908 -0.797674 -0.171494 0.769103 -0.604441 0.233406 -0.156048 2.147190 0.274107 -0.271984 0.599445 -1.534500 -1.688669 -0.056212 0.655810
*dt_8 -1.472605 0.426708 2.746766 1.173273 0.208492 -1.958806 -0.659488 0.342131 0.330727 -0.768943 -1.008989 -1.274475 -0.353484 -0.624650 0.632610 0.621034 0.378746 0.784598 -0.920319 2.048439 -0.605064 -0.420141 2.224222 -0.204647 -1.599817 0.272455 0.704091 -0.314944 -0.220400 -1.199452 0.265901 -1.214741 -0.753396 0.270213 0.345916 -0.459969 -0.660727 0.165609 0.600433 -0.428704 0.147356 0.022707 2.268528 0.540634 -0.178756 0.496841 -1.099442 -1.662577 -0.126107 0.719428
*dt_9 -1.196080 0.664065 1.813511 0.651284 0.199430 -1.771223 -0.584246 0.000041 0.187448 -0.713010 -0.190869 -0.503961 -0.211665 -0.397046 0.562280 0.375402 0.454623 0.753651 -0.436688 1.457428 -0.649493 -0.075856 1.625172 -0.384043 -1.100582 0.424412 0.799243 -0.202649 -0.786669 -0.781229 -0.131010 -0.921519 -0.705795 0.621978 0.667013 0.019355 -0.429955 -0.384284 0.869050 -0.448477 0.426635 -0.479250 1.434359 0.162127 -0.087334 0.434375 -1.242065 -1.606473 0.100647 0.404687
10 50
*dt_0 -1.125414 0.990745 1.245380 1.854435 -0.307470 -0.752735 -0.122534 -0.779593 0.271528 0.016309 -0.463902 0.150391 -0.956271 0.017137 -0.681704 0.795709 0.276668 0.670215 -0.510360 0.886581 0.462929 -0.111555 1.376192 -0.376301 -0.782851 0.627792 0.467794 -0.000358 -1.413972 -0.045534 -1.171729 -1.019021 -0.298530 0.362666 0.357849 0.880254 0.702218 0.417664 0.375304 -0.931021 0.647018 0.363126 0.767675 0.453575 -0.175995 0.194080 -1.154374 -1.695251 0.837654 1.194791
*dt_1 -1.169975 1.042699 1.134164 1.720953 -0.344665 -0.444261 -0.172591 -0.991645 0.356958 0.347053 -0.782761 0.125131 -1.032200 0.091475 -0.797258 0.731257 0.316902 0.842514 -0.785607 0.861182 0.744286 -0.120622 1.330351 -0.155530 -1.002950 0.499300 0.720953 0.095034 -1.270499 -0.126319 -0.941410 -1.143265 -0.278550 0.389458 0.422265 0.934044 0.832512 0.644894 0.343984 -0.877367 0.664267 0.406419 0.775591 0.724006 -0.167247 0.358346 -1.151703 -1.697546 0.725319 0.938309
*dt_2 -1.082610 0.949879 1.221562 1.688481 -0.295762 -0.685029 -0.228308 -0.802988 0.240412 0.091732 -0.563206 0.032746 -0.940098 0.096857 -0.649917 0.688905 0.317637 0.754463 -0.607031 0.884657 0.636889 -0.072980 1.280448 -0.386441 -0.867290 0.511147 0.627375 -0.000683 -1.367344 0.033554 -0.977946 -0.995177 -0.336782 0.468800 0.377127 0.812060 0.710213 0.430394 0.337070 -0.817129 0.564790 0.446411 0.761159 0.516567 -0.197741 0.280220 -1.118529 -1.558681 0.738523 1.048588
*dt_3 -1.167040 1.112488 1.431705 1.980505 -0.337477 -0.824474 -0.277765 -0.876239 0.274930 0.067972 -0.542314 0.023168 -1.056388 0.053665 -0.817622 0.674951 0.392665 0.761513 -0.648601 0.978816 0.624447 -0.103923 1.418714 -0.480220 -0.861787 0.515861 0.703912 -0.074784 -1.596322 0.125831 -1.180209 -1.200585 -0.298458 0.431657 0.446571 0.948189 0.801717 0.307108 0.360182 -0.846960 0.569611 0.600884 0.877017 0.618231 -0.213170 0.356065 -1.310758 -1.828752 0.848428 1.153341
*dt_4 -1.201272 1.166181 1.409655 1.920482 -0.324569 -0.840252 -0.319416 -0.778876 0.236170 0.000151 -0.638587 -0.008182 -1.003796 -0.002840 -0.757597 0.685382 0.365416 0.785825 -0.611294 1.073719 0.629369 -0.035660 1.460667 -0.524537 -1.011987 0.567824 0.670162 -0.047827 -1.570609 -0.013446 -1.199211 -1.211118 -0.346098 0.596024 0.325078 0.824375 0.921726 0.378349 0.495358 -0.929441 0.580315 0.558560 0.895417 0.551482 -0.186909 0.244708 -1.274829 -1.763623 0.885114 1.231213
*dt_5 -1.037162 0.874509 1.215495 1.824706 -0.166118 -0.700347 -0.236095 -0.678798 0.239710 0.017665 -0.551560 -0.007741 -0.832770 0.018329 -0.576606 0.679856 0.371051 0.694933 -0.564718 0.871141 0.567707 -0.070171 1.329843 -0.344430 -0.735885 0.456809 0.584088 0.052085 -1.396943 0.070289 -0.974049 -1.070230 -0.302660 0.497784 0.469946 0.738422 0.742488 0.364317 0.271260 -0.816807 0.493861 0.414314 0.781294 0.491115 -0.150999 0.247077 -1.111160 -1.597700 0.772490 1.063166
*dt_6 -0.981394 0.877445 1.195527 1.633816 -0.148738 -0.723017 -0.181432 -0.687847 0.232028 0.098346 -0.252795 0.112760 -0.805173 -0.106059 -0.584075 0.592924 0.188938 0.658865 -0.415982 0.831978 0.597584 -0.119435 1.212558 -0.339582 -0.789898 0.406738 0.533131 -0.195932 -1.252868 -0.072997 -0.874183 -0.981059 -0.334982 0.497169 0.370259 0.615302 0.606685 0.260459 0.458645 -0.739598 0.559483 0.431481 0.786375 0.464111 -0.233652 0.314699 -0.809759 -1.569419 0.845397 1.031810
*dt_7 -1.071019 0.863152 1.218627 1.682595 -0.241101 -0.756874 -0.150774 -0.776072 0.189974 0.049990 -0.509867 0.014475 -0.950437 0.064975 -0.553228 0.575416 0.170325 0.586081 -0.559124 0.805402 0.611713 -0.087092 1.306843 -0.425974 -0.868814 0.554389 0.584156 -0.078049 -1.260265 0.067321 -0.926960 -0.992624 -0.354412 0.483568 0.395213 0.778039 0.638640 0.283690 0.288193 -0.781395 0.476413 0.418514 0.819808 0.499062 -0.174107 0.352527 -1.082417 -1.429822 0.699347 0.978008
*dt_8 -1.206061 0.734329 1.266720 1.581944 -0.192022 -0.836200 -0.526992 -0.615259 0.153169 -0.095266 -0.707781 -0.032495 -1.055813 0.292223 -0.638002 0.695233 0.208007 0.631647 -0.607240 0.925538 0.517880 -0.150223 1.337716 -0.467246 -0.858060 0.702142 0.602782 -0.081967 -1.213764 0.017851 -0.995323 -1.081035 -0.219034 0.499435 0.263751 0.605639 0.713662 0.498758 0.263078 -0.767580 0.468850 0.616112 0.749287 0.526248 -0.087224 0.324438 -0.988181 -1.455152 0.637083 1.213811
*dt_9 -1.073083 0.924107 1.179008 1.641853 -0.236624 -0.743767 -0.275668 -0.749493 0.218549 0.043173 -0.495376 0.054299 -0.910096 0.055983 -0.616395 0.660661 0.295992 0.693659 -0.535828 0.832980 0.539839 -0.068455 1.265629 -0.399180 -0.798999 0.501037 0.642248 -0.053035 -1.381933 0.029445 -1.032574 -1.007145 -0.318389 0.460284 0.384850 0.792116 0.694701 0.302636 0.356853 -0.774982 0.537699 0.439191 0.732215 0.500053 -0.175085 0.216128 -1.097492 -1.539546 0.744194 1.009141
